1.057504390637050012e-01
1.456860332312166495e-01
-9.801267145450283380e-02
1.058306971525569823e-01
-6.350684652086674431e-02
2.427549947926162591e-02
6.953407407145123509e-02
-2.170167500998815280e-01
-3.475093061541955491e-02
1.924294507692050626e-01
1.217984553056206121e-01
8.394122828860499375e-02
6.917890328027245794e-02
6.331257456153378815e-02
-5.581843509633228201e-02
-2.086066680554425068e-01
-1.611509561002863744e-01
9.127832183308924596e-02
2.398206268510139419e-02
5.757701335495697681e-02
-1.972771883878439089e-02
5.540370545908083338e-02
1.232300451138696601e-02
1.478532577686978156e-01
6.960539009093252849e-02
-8.287812192902591080e-02
-6.036016327530743797e-02
-9.017880428336337573e-02
1.326486960239048052e-01
1.298514544108728408e-01
-2.485390993833622997e-01
5.837236729544107577e-02
-4.013751994421493885e-02
2.532752321689870148e-02
1.682421271454279804e-02
-2.022712202772396772e-01
-6.333269825700731104e-02
1.463636563306786320e-01
3.020842758676170123e-02
-2.030472915586430949e-01
4.304563911291847678e-02
-8.173367674510813308e-02
-2.263556358915461489e-02
2.784803751315240508e-02
1.302785932936166013e-01
1.205649487623463162e-01
-1.090931789395964240e-02
1.721989326964273037e-01
3.226005282772591021e-01
-3.715694268249202237e-01
2.640254917636902440e-02
9.765015918981084092e-03
8.857861641974679179e-02
2.228377291435926777e-01
-2.175269071954437639e-01
-8.798571242519338809e-02
-6.815315901611575244e-02
1.721249114396355417e-01
-1.232789667875841960e-01
2.506360579260157387e-02
1.370441734830911418e-02
