1.107056089010857308e-01
1.510246976242955175e-01
-1.184015716151901737e-01
1.225652061827004757e-01
-4.599624118986284094e-02
5.696186034311155610e-02
5.626627307815469659e-02
-1.763809919866149711e-01
-3.905165384221935022e-03
1.680653962518335875e-01
9.663791111929501132e-02
8.436352389014092901e-02
5.287773035258497983e-02
5.745186320580189521e-02
-4.826998264045204157e-02
-1.927271073339685004e-01
-1.657419181278324549e-01
9.856279725523359181e-02
2.435809202118147804e-02
5.573524763049702430e-02
-2.639478176080802332e-02
9.207080822408625354e-02
-1.150934732211148989e-02
1.213811473424318554e-01
1.107471772973348118e-01
-8.311497049914036428e-02
-9.390529458413172936e-02
-1.029642939951008612e-01
1.854751634610835309e-01
1.274095746885534342e-01
-2.562242046892005964e-01
1.072060736351113375e-01
-4.683368390688363164e-02
7.490307204800424751e-03
-1.605700465826884280e-03
-1.617564976762855267e-01
-5.090851898778638723e-02
1.158186121959306203e-01
4.282522938964106879e-02
-1.967421743699304393e-01
6.362258473838496020e-02
-9.939984551859495920e-02
4.759644597656507124e-03
1.459814563631460504e-02
9.172582344789018127e-02
1.294796229275469446e-01
-2.623078715490918724e-03
1.587607137435706750e-01
2.891338927971758288e-01
-4.216734772498924588e-01
8.812060606111306316e-02
1.932091226500185291e-02
8.691781454604154133e-02
2.275295649901956097e-01
-2.009078993159822413e-01
-5.633404138971605940e-02
-8.654045482240238507e-02
1.543989078846923768e-01
-1.414690094613786087e-01
2.743403190154474619e-02
-2.558264257523046314e-02
